-1 8 -9 22 0 89 27 -3 -7 1 0 29 9 -15 0 -1 -1 0 57 -42 -26 -3 -9 -1 21 34 8 6 4 10 35 23 3 4 -106 -17 19 -2 -11 14 18 0 24 -3 -22 37 0 0 1 0 23 76 39 -5 -17 0 -23 17 -37 59 -24 -7 43 -17 -2 96 20 74 -34 -37 -46 9 -27 0 -9 54 10 -8 1 1 1 1 10 9 2 89 12 0 -1 -55 -9 83 13 3 -21 -2 4 -10 -19 16 53 -58 6 8 -34 0 5 -47 33 42 0 0 1 1 -13 -46 -41 51 -14 0 -18 3 -52 -51 -33 40 1 -7 -3 -59 49 -8 26 -104 13 -50 30 -1 25 -13 -35 -6 -1 1 -1 0 65 21 -30 53 -33 0 10 9 33 3 12 -6 71 55 0 -25 -1 -69 -34 -29 48 56 52 0 6 49 -8 8 0 0 -1 0 1 -6 -17 44 -11 -1 12 19 -13 30 -1 7 -68 -6 0 45 -16 -41 -44 3 3 -90 20 0 -9 21 -16 19 0 0 1 1 -30 3 1 36 14 -1 11 23 -29 6 10 24 18 24 -6 13 32 -8 59 71 -30 24 -15 0 21 -70 -34 0 0 0 0 0 -24 50 -23 69 -31 -1 40 5 7 36 55 14 -25 -22 7 -6 64 -32 17 62 -22 -22 31 2 1 -3 49 41 -1 1 3 -1 -1 25 9 50 9 3 -77 0 -27 0 -81 -10 -38 51 -2 -45 -7 -36 -5 8 -14 12 32 0 -5 8 72 -3 1 -1 2 0 -16 -13 -14 35 7 1 14 -30 14 52 23 6 102 -18 2 22 -15 -13 -8 -6 -18 -28 11 0 68 8 15 -20 0 0 0 0 -8 -10 -3 -9 -128 0 -29 -18 23 14 -9 -21 -9 7 2 -24 48 23 -9 -30 -31 17 -91 0 2 5 -43 -6 0 1 -2 1 -54 -37 18 18 -13 0 -22 42 -8 82 -30 -16 38 -14 -1 74 -5 -21 14 -58 -61 24 44 0 -12 -44 59 -17 0 0 0 -1 18 -21 8 -61 16 1 12 51 19 -29 9 -5 23 -4 -3 -42 -8 5 17 -11 18 -54 -45 0 -7 5 71 -22 0 0 -1 1 -2 28 24 -30 18 0 24 23 2 29 38 -12 -72 30 -1 -53 -5 29 -57 24 -115 9 -3 0 10 46 3 4 0 -1 -1 0 18 22 -15 3 -9 -1 11 14 -2 -59 9 8 -14 -14 0 -31 -38 -23 43 -1 -65 -30 54 0 -33 -35 -47 -15 0 0 0 0 31 -60 7 8 45 0 9 -27 -10 90 -1 -3 -53 19 